0.6853670285182331
-0.2571667056615602
-0.5262873410955828
0.5632697434447775
-0.21617261433956908
0.3590314698852546
-0.2591612487885867
-0.30397550273182156
-0.29003990297605975
-0.427518918581671
-0.4721987139068727
-0.1309790449724732
-0.16200473793176884
0.5678112775253551
0.41878193335686725
-0.43289097457417947
0.02962788098197694
0.7845390547216211
-0.07260887804972879
-0.8709721792393494
0.6009585992203839
-0.24486897566670235
0.18997005535729297
0.11829192103478223
-0.005768775034637966
0.5430880981536221
-0.06844792495641056
0.02649026847046622
-0.7107263154308823
-0.1304493984724417
-0.39847835438550505
-0.010777291446658639
-0.509468331932557
0.17759726665239017
-0.32197131797370093
0.07526884140556919
0.24616483723566424
0.15393643028011147
-0.06448315239294317
0.6796387238353301
-0.23307708856204862
0.29551833211079176
-0.9125820079535593
0.4929442356016309
0.42347730245491355
-0.21483986060607135
0.12450358335107257
-0.11335855344749135
0.4180872175304081
0.7737897051115725
0.010328998328331774
0.3340388832568496
-0.6199045390556064
0.015965613227893194
-0.6477903182864702
0.047327737009559515
0.218500334451732
0.4064639208029298
-0.31142504017120265
0.005134061331332965
-0.09723531821217979
-0.23934541914386967
-0.34594009180288593
-0.8940853908547233
-0.5256795097137682
0.2465541533280742
-0.5623627567924262
-0.6794636665071163
-0.39657909827219573
-0.5377227053222347
0.30832444594545605
0.04558602414766849
0.687160290591858
-0.10019501519381699
0.4767840061340504
-0.24887069871813305
0.23815873688178535
-0.3727858863333756
-0.0024004226038164666
0.05467705199284954
0.04603636928894881
-0.17633047392699083
-0.580084360362999
0.4748614108555592
0.1933901379916047
0.2777458596351501
0.7835839270417739
0.8254044867270511
-0.6328086565015192
-0.09021126034419233
-0.44092698667777885
0.4251150939381296
-0.2562890279905284
0.17538466620755772
0.2431098630614565
0.41255501452723015
-0.17262140803951764
-0.0999276697925676
-0.3215000000556684
0.19777103103434526
0.0267998063562514
-0.009380620504092479
0.10478801162647602
0.37600292298594473
-0.7952106255023539
-0.586962173703556
-0.35262824076661836
-0.6373661176733272
0.14050038454581842
-0.879297189178101
-0.2554092628956506
-0.3647179955013282
0.1336699236633037
-0.03931584633297189
0.23155489640106602
-0.11655272499152211
0.39265763238762746
-0.4174182939654779
0.39295541125166766
0.5044574451563237
-0.07166000935618166
-0.18403930537134197
0.43182390461479975
-0.17013782275725525
0.619129175987289
-0.26356400880856995
-0.38571781675692335
0.640132271214271
-0.3401401100032124
0.5593098605395082
0.052648815330730805
0.7826201641912169
0.041097700435982924
0.4689032657657082
0.22894646210616637
-0.5472738983951728
0.29697758215958847
0.45135293468518395
0.08165667914387995
0.16179066542260695
-0.3568800315327286
0.009911513259577415
-0.10547857505437412
-0.4646390488427248
0.08769476135313276
-0.17273316454788412
0.4919285918480176
-0.5671854374675794
-0.19003399253613693
0.5046832969108599
-0.05851154254838717
0.7395786361280487
-0.5003497566774331
-0.37668996702213375
-0.6014074908531847
-0.26699140369349783
0.07078440747477655
0.685026120037886
0.6376486941705137
-0.6919247004520053
0.8539062284262309
0.2619261071578457
0.5206286325714078
0.006820126715206265
-0.5027123918360332
0.35164890864616005
-0.34490681502384535
0.5911565786779414
-0.5386867596958995
0.7728200083647906
0.02363661087613372
-0.8159123137644254
0.640697282659858
-0.8771654798189474
0.17035212921904616
-0.19498283173034303
0.9005475161080808
0.3007916319549335
0.5910264824180713
-0.6360732898266007
30.0
