0.20133748436233412
0.392262589754495
-0.22856457630294386
0.1564642966710515
-0.05039124977583358
-0.11193723608247377
0.4441663072001183
-0.1053251839328602
0.11861759791185074
0.3756622688421971
-0.6181518918409619
-0.3446265822862529
-0.14800293491354669
0.6809871813405992
-0.6676717327040119
-0.06561502947011072
0.6929275370587127
0.35652878032904917
-0.11457925917817213
0.16052152404830253
-0.40819615948011123
0.25715958373216447
0.2610532493417397
0.7606698578740665
0.38912482072958865
-0.5959339733785758
-0.08010546385166423
-0.07468237632142524
-0.6944461817328607
-0.26894821212808667
0.4266216676102784
0.08466917566114851
0.5414538648387723
0.35616387613176936
-0.5255728424076244
0.6916046865577405
-0.30409113851537073
-0.1377923615938494
-0.054871022686573984
0.20637403548994243
-0.8212290094708301
0.17480072845676153
-0.10655662775748431
0.5017566257863355
-0.7937329583526292
-0.021202112488563997
-0.07432558251249195
-0.23017123351328656
0.40648987423898747
0.18163797775355062
0.2491503167003686
0.12418806969852425
-0.4181454224209331
0.037677664943787825
-0.42286077321400345
-0.4593168448154789
0.43721756886162433
-0.03982926331752959
0.06458584144556609
0.3302478058867254
0.5579234989702324
-0.2488495198625958
0.10049282891108946
-0.04689154716704191
-0.37977250198086276
-0.4855902657077234
-0.33912388641082897
0.6072742085924792
-0.5346924823782604
-0.06150854254764411
-0.585294201959824
0.1338234846941086
0.3811540497928198
-0.2142267186551448
-0.5380037006916722
-0.6112152355104925
0.5706641157746088
0.13893136602151568
0.16297814941617111
0.0843587444941088
0.04874305842756191
-0.3104407469142903
-0.2646250778640559
-0.1690806745546694
0.00634869281650479
0.8041403418594467
0.3698941879196489
-0.23586319194504407
-0.23309893708179885
-0.005538893116981369
-0.06398557995471141
-0.6940135493142722
-0.4488032716010594
-0.4413068397755942
0.19556963982472153
0.20638188645973266
0.36213190753814495
0.08655684912996844
0.025477645362867736
0.04693888218479961
0.7198302593974936
0.09372997396754787
-0.9365361585226541
-0.3798996830694277
-0.7738551292886621
0.6793764558984285
0.27873379908313806
0.08574115221669212
0.14819898942608625
-0.28588062073894993
-0.5329832716086137
-0.18999316512279038
0.4619477587074216
-0.5092200014053625
0.11641073240581087
0.5008576910034264
0.09414942303047132
-0.23078591213180172
-0.32781968066147293
0.29194948981851654
-0.02968677328589058
-0.42495369936307503
0.7802702302598812
0.30012873919783684
-0.7561749072639867
0.2990760590530404
0.4982941623402211
-0.3235374087468914
-0.1544509274998744
0.9510287107389888
-0.6193114713405221
0.04727338390209851
0.30634213803584004
-0.14461939515999334
-0.4432263578126718
-0.12760443250028536
-0.16015913788328187
-0.4955764522052474
-0.34447187720731115
-1.327013737969368E-5
0.4128195190258206
0.27483368193825614
0.1576829943221324
-0.11533139452775146
-0.29747222241896776
-0.5421248078502253
-0.07509124508602352
0.6208128830765113
-0.7143550288454978
0.6833739951849749
0.7313380182244154
0.4919512833738944
0.3459379822784221
0.19251428324718328
-0.244125087542555
-0.056055855721202565
-0.40299491552959227
0.4742342302577005
0.03727724182889675
-0.8452195208787854
-0.07972944156804762
0.5445221216866601
0.10531519379944726
0.43196120209199074
-0.061470328826160964
0.1707478826919488
-0.15114432244078507
-0.35736142804301035
0.005934363239512156
0.033281770901451395
-0.2572318028461884
0.042991921276822734
0.20064163809407715
-0.6667139459982292
-0.21403639927923954
-0.07910259862573864
-0.41945065999272546
-0.12133678529842794
0.014899301750498637
-0.3524297190950453
190.0
