-0.6385623332774215
0.7566699433922364
0.524290291604314
-0.3894391571804827
0.8204810155169593
-0.08661463364143285
0.30279854933561823
-0.8649160170545769
-0.5422648033377648
0.5097500471510317
-0.5004558990707619
-0.6692866768701176
-0.7573007189134242
-0.06106796607768139
-0.9414076783840823
0.2584295040813962
0.5147461066136272
-0.11349198659886772
-0.35976448126116045
-0.06649504384518012
-0.8066343665865314
-0.3917576471941553
-0.8113360218071197
0.514205357577076
0.834827781187772
0.8963431110530835
-0.41786215943997496
-0.6555516957321701
0.1498720214481286
-0.8572823916145147
0.8571539666460211
-0.4898597799390636
0.3907288345944613
0.160503027530845
-0.4127867146383881
0.5957688618903196
0.43695820409477215
0.481198403746939
6.303107145104736E-4
-0.7175553004223407
0.8121731130944017
0.6451077495917847
0.502120342235129
0.7958750683596705
-0.8759104836215086
-0.5765504324983406
-0.7959831233507717
-0.9035192530630503
0.8697792059237475
-0.35890649942822384
0.3468309036976722
0.442233572938147
-0.1581125130094163
0.8065195379011454
0.0772665882512018
0.22471589584325957
0.9545364961293199
-0.23398898832313697
-0.44412001808484947
0.7174550209579147
0.571596139283375
0.5237922878106782
-0.1742031909660955
-0.17763382824121177
0.6154396683745957
-0.8295011861695001
0.005478524194520773
0.6100316532074097
-0.8026353320814601
0.3093270595535098
0.6834199937099406
0.7167792551172691
0.009550400342356102
-0.32693222877170247
-0.9142619310201607
-0.3758370937554587
0.16868644446051184
-0.9628502707031548
0.27698423964710606
0.5892215166457906
-0.6582399064951858
-0.2636459798188058
-0.6206581937399154
-0.6182613858729655
-0.2914295484935141
-0.8887929683971398
0.1588126349945731
0.9054872128337459
-0.7778110696927523
0.3627546016652454
-0.24121476711458545
-0.6912213718070981
0.690619867457416
0.11158113891819577
-0.897855010596414
0.28529477988203533
-0.6450357963775799
-0.9154651378888683
-0.182375568146115
0.7411641945800389
-0.32956103900965217
-0.3470846936675751
-0.7728678962628006
-0.7394836762961106
0.7305525161174355
-0.6744984775910947
-0.1939085978882007
-0.037388492416921215
-0.5862540531747285
-0.7422436141020441
-0.7265027638434074
-0.5927181878102699
-0.07256324919504031
0.8716290373165569
0.4531466593129436
-0.3346088787643662
0.6903039814049503
0.5555394310093678
-0.8131136466303996
-0.7175684883110047
0.7277833645333345
0.26698189593573907
-0.03468466538436532
-0.00810085447378972
0.846756951737244
-0.7588745701734134
0.15065520243839292
-0.8711799237756719
0.030196329574096348
0.2872315677886459
-0.6924284395270539
0.9615102397084687
-0.8997307160213455
-0.7563863065683605
0.9700889831190262
-0.23692464481024023
0.6056900898638209
-0.5596117130714513
-0.21804417306671087
0.9610808891910962
-0.3301162895989149
-0.8616291127969709
-0.49248959515262425
-0.017966126996898035
0.19667077589690063
-0.5974447376588357
-0.8758569311928512
0.6862597549877261
-0.20650519105360243
-0.25337471033922165
-0.09834518025286765
0.23257306968742175
0.16530398145589764
0.6543045772998304
-0.1330670102360776
-0.12205828430871768
-0.4640268613334215
-0.706418278843675
0.7905726049352602
0.9699489840211135
0.8743560666889791
0.758376870705147
-0.785917597120281
0.8404779256764734
-0.02328697176316874
0.8292677700513933
-0.36052001808417034
-0.8223620313408551
-0.5820049633609676
-0.18242759340166814
0.6736543883225514
-0.5416660024093909
0.30247711306814806
0.6265776961145368
-0.6392359659855709
0.856454165306255
0.007240170561751302
0.29764890070096217
-0.4338519503127418
-0.7792307567262663
0.9663531540066643
0.6515155243798523
-0.8844053012440691
0.5567582284542567
-0.10554943944918871
-0.5985776845270903
-0.7966014939463815
0.9707296691393352
-0.1843697998997884
-0.12090533827922778
-0.24198245189930545
0.13714870874189522
0.3030155146793696
-0.502306593802162
-0.7171399105005349
0.5295315568232923
0.95635607121147
0.682189519547431
0.3210835691295777
-0.33854972856246657
-0.02970079505462575
0.08167049226379008
0.26516209105919497
-0.6156503456334441
-0.182246187866838
-0.32480870325869926
0.946078974445274
-0.9193026570927232
0.7399986057572394
-0.6799129934466663
0.9303109837410526
0.8162589357001231
0.9639445345178377
-0.6782375065823032
-0.015068405601847079
0.7896558201280119
-0.872678503963382
0.7955146957473094
-0.5169500415524417
-0.5146909951978371
0.9484402289679341
0.8586957367396288
0.8534210213911815
0.7507646256860667
0.8997246581397151
0.6284751294979474
0.18611701956483762
-0.3518019351430788
-0.9181977252186768
-0.8476263303828715
0.44849228024627363
-0.6538602561251599
-0.270123557069176
0.5354835714963446
-0.17160372939565804
-0.9259769342058248
0.5742527597525788
-0.9676020573093131
0.5163640935859839
0.7079827034734332
-0.6006266497707264
-0.6798338460751134
-0.37214628520097004
0.19451558777717515
0.3606372640474953
0.05254543911169218
0.909225753722366
0.6840192668655529
-0.33020666994316716
-0.5461374851163356
-0.27071633989718014
0.49902205528855603
0.5213836956812969
0.2323240083841831
-0.4878275631555633
-0.6098795516531681
-0.33845060781399794
0.8414490424733878
0.08630926058088462
0.5065913288977666
-0.6451097808002773
0.7253365420451174
0.9010944979578361
-0.1836661572722118
0.40559408689255005
-0.5532082058358776
0.04514998197708309
-0.40054865217026325
-0.584310512477906
-0.37630741605430273
0.37325611466223174
0.500854768434803
0.08732626220482964
0.33879583288706505
-0.8934418399256534
0.9515884880630947
-0.3077696819830611
0.22539138015776783
0.15831827978139845
0.2895025216854774
0.48583999131848854
0.8302059672940836
0.23216162879270974
-0.6272859480841455
0.386728906632708
0.3296869854269928
0.6379918837513625
0.5033029500193826
0.3876798761948794
-0.35547810589184103
0.8658806624167132
0.422005223828797
-0.19439147138616986
0.2425785364110089
-0.9713095222872268
0.18310519568067196
0.981007152369465
0.5048757953666774
0.6328600321544979
0.5914778499918096
-0.1567377558428733
-0.7102552017447517
0.6613715747069653
-0.6100481347232938
0.5692857764683097
0.09423829123793204
0.8981513525535996
0.36528486676253347
0.4129351816951443
-0.5392333133162002
0.6862758276481982
-0.3447696424876272
0.36624355097274797
0.1878743799438496
-0.057230210138669024
-0.5288162705195241
-0.29696985999119496
-0.8171712005616216
0.3802693949931488
0.29339308249628404
0.40534217902252
0.5297159347938487
0.73806719643293
-0.18156425608038096
0.7245682775793323
-0.7339783419439563
-0.696110739639455
0.4958418644335272
0.39228053133988805
0.44649864576711096
-0.4979444746994157
-0.2516884570377118
0.1164648238991779
-0.3520261920237018
0.6937209224526497
-0.9571926801936068
0.4775126827301164
0.14145973091314
0.9530971977616725
0.1726951989987069
0.8476569837413717
-0.3429019443147827
0.6811059964001318
-0.09717790513805324
0.05963742326261201
0.36480237613628086
-0.02114645581871155
-0.9776867364012851
-0.8993793514903607
0.7747967636945114
-0.8211230220793011
-0.6941224963127088
-0.7812561448746747
0.708921770805353
0.9564140475869964
-0.47075420910567156
-0.27194963453990906
-0.37969294932546216
-0.2590089092903276
-0.6359263831027668
1480.0
