0.4127954621475657
-0.5030588074015165
-0.29810198860443127
0.39924656254930196
0.3477443824070172
-0.10379355348227072
-0.2650891729770263
-0.6353371334464306
-0.5671334958035225
-0.03795834397702435
-0.6761048736654097
0.5721418132365237
0.10943018071223379
-0.09456250608724676
-0.02738462777723097
0.1321359776272652
0.1999321102889408
-0.34315509755111495
0.8687866795759116
0.21243440052646329
0.34847688130446575
-0.24911668192015446
0.4429540757857128
0.5556593634058993
0.44939105580541616
-0.4860884098427418
0.7577672799455577
-0.27968922544878533
-0.09939908607811461
-0.39917217788314363
-0.27267247024835495
0.3613260218756432
0.12783876693080365
0.46500198751748234
-0.2555792320237754
-0.10674828871534235
-0.9211036232292722
0.20509323288383946
-0.36899155822797325
-0.07620895920303686
0.5795701343022728
-0.5249165697130709
0.7688469664196063
-0.4988279538851685
-0.07801030012772665
0.6058545417012188
-0.7670812300348195
0.19978464896708142
0.4618842668686968
-0.13357046198309674
-0.017790672157486313
-0.014057773478303857
-0.2579295265220808
0.2996604384246506
-0.4828281844082347
0.7235543704902923
-0.6482268398915194
0.13500350371648898
0.12914536055199574
-0.9921664347497507
-0.38910000846245707
0.26191970560422373
0.2266434639696469
0.44909858518128654
-0.38740813709333755
-0.12585968213561802
0.3186416994766519
0.6543943947846829
-0.901576908619525
-0.20131445714424612
0.8083565598022335
-0.40828701540748835
-0.0591682998241149
-0.8083043761422377
-0.18120309794167283
-0.17522141821015402
-0.6913476494132518
0.2991538847838477
0.23623972555540299
0.28465763426276236
0.12725279031040054
0.671746777372692
0.13508674403082865
0.012419907907091856
0.13931786707280114
0.06044595980411548
-0.428061700021936
0.11644218138601509
-0.14301942652176564
0.4383289629043544
-0.4121117610485036
-0.16486847328420795
0.12875235923357772
-0.39034669062986926
0.4410184495431787
-0.18490763618756073
0.102979991515704
-0.358045300891307
0.2011330906502176
0.19903708840883516
-0.44384597900436484
-0.2897023649683972
-0.6899188573155433
-0.5882898690278522
0.2980144478629398
0.15854127141998944
-0.34394926333769377
0.30308821774182704
0.21687734934061184
0.06499967729515894
0.4832269439845131
-0.12909926877196526
-0.007295436114412538
-0.22014842831229223
-0.009070570225645717
0.5679526851117954
-0.23851052891486862
-0.06250407219385662
0.313810220095261
0.46411026066032873
-0.28870291145725036
-0.10104013345053008
-0.32353662842439346
-0.04444927940620618
-0.2201784067297954
0.7480171979843082
-0.6314687586724368
0.7785577447529061
-0.22585322905543007
-0.05939728191674142
-0.3709222643218987
-0.16886702111064175
0.7930823017493988
-0.08323979398002228
0.4973514735495369
0.4423706356102404
-0.4154269679506908
0.2382066523949671
0.358023285569272
0.31088568037190795
0.7042314783084509
0.07067958357900156
0.3909099281290987
0.38761107901500985
0.5981550315657364
0.10994190081863063
0.5235668369671517
0.1653408351601517
-0.7186018157324632
-0.09788513133303083
-0.4110683801805741
0.24551221930885636
-0.11214740293298503
-0.16109648054617326
-0.1362050325454023
0.7540940052479818
0.4175529931456814
0.05521032148601482
0.3242865544117458
0.3301659897770711
-0.40838781509316824
-0.39315835704815877
0.4615059814073547
0.08141555199470621
0.39275959163028085
-0.36698672021975876
-0.028702565929887947
-0.5546353658336303
-0.042554482252400626
0.9807791675343057
0.12217505315350474
-0.14471096502128883
-0.16557327985203452
0.3159879211971953
0.16270231119035838
0.5433215887675946
-0.3442150270897567
-0.8333029677099569
0.617437729500278
-0.32310888063085974
70.0

