0.8694957432255476
-0.7858692763490674
0.23961127912551694
-0.9646648686258814
-0.888332659013929
0.621269261990048
0.2638108882188498
0.7063266108829382
-0.787983726314171
0.7402962054125392
-0.9024133141187013
-0.00784062061908386
-0.7303790445574657
-0.6986882145491056
0.09168912903120063
0.24294152192502427
0.8917066384374125
-0.6377128410321626
0.4266356510245315
-0.731590773834507
0.45532085730919614
-0.974633413223918
0.12846293912960283
0.5659121444969888
-0.9573954620434509
-0.28410020012721415
0.9978533876343861
0.8584745736110182
0.6097556665197449
0.22387266288907548
0.9473108810903864
-0.48741539307968373
0.6961900375087484
0.6450420304981378
-0.6919111357376106
-0.7258743864008006
0.2131316181699977
-0.5938974393988815
0.8197070629808092
0.869698218286418
0.2835732960020506
-0.9599618727939728
0.996279093970729
-0.716011623277391
-0.42878503296028225
-0.8620837806471977
-0.014682127201152695
0.8290409667137828
0.4629989930195548
0.16075483984908667
0.8614243330288988
0.2759028049554937
0.6013206567364652
0.5183507755233631
-0.8071004564059002
-0.47569028229224575
-0.977728199750297
0.3374593308892253
-0.6697396268094652
0.01623896176909867
0.18289902620922427
0.4379345415763203
0.05954643935583126
0.5249364764330315
-0.4026557297526314
-0.09224684845718734
-0.3621119322712294
-0.6877415652534743
-0.6422520123973682
-0.7419037120618014
-0.01682780341457124
-0.2834548902460591
0.8631807924376425
0.4403907880612523
0.9085010819642579
0.11186898978475657
0.15243730952149448
0.49479941829126417
-0.32026752604499453
-0.15272671058343656
-0.50581302523043
-0.45300782252808125
-0.34893885010414205
-0.3898175981308316
-0.11209838635138125
0.15929171287240496
-0.21086981594894694
-0.8977997176677484
0.6879787058056566
-0.0912484687589199
0.7651471995690184
0.9295817086193935
0.34895834729016983
-0.2170012208090083
0.44611032894544267
-0.5048444296637512
0.5467571042936976
0.6552461868110713
-0.7705138375139445
-0.015407291561326586
0.7670785990302372
0.07264320909945421
0.604513993629436
0.49490735024601606
-0.3941178355805498
0.9635170838685245
-0.42745211364061675
0.20940936663810672
0.5121924242071205
-0.2854086833398095
-0.19534868163814822
-0.0739572109456964
0.45486381333134696
0.789635112836794
-0.9162114878855137
0.7002734102465383
-0.8241503766928034
0.3170052655326381
0.32767648674251926
-0.48076623923936446
-0.10508643827893571
-0.21289083521832852
0.7879937965591644
-0.3440016833439081
0.18399117376489849
0.3500382738323986
0.6236685280297548
-0.3443635957394625
0.25429081949754984
-0.38827385557902294
-0.23776938758572463
-0.12279486831780928
-0.14537751468943638
0.31342011896205524
0.8359777555213095
-0.7817429247151347
0.8434506487456448
-0.8085027317216967
-0.5284769791413049
0.6245309762880508
-0.3661140580001586
-0.053254226042326436
-0.7433350760277473
-0.35420228435684065
-0.6041036175173445
-0.4169583019880947
-0.4883289606485913
0.06393269880230901
0.8251901407957143
0.6081471117012369
-0.6237224474657376
0.8571390053206891
0.24020035509555604
0.9352596013236868
0.8867343009049179
-0.8715551489376481
-0.024267148352863588
0.7871605442980805
-0.88359311511089
-0.2433179338345267
0.05477082159949109
-0.49285416212693856
-0.47188908439813615
0.5143763867946893
0.1297568057399361
-0.7066231017632089
-0.8542073799658761
-0.7735768287444394
0.7475739691253539
0.0883770956120673
-0.5243745084535779
0.5272080361002127
-0.5126130632881754
0.6187784815451486
-0.23276885099330724
0.7516275642402682
-0.6577481690042192
-0.5736669377205543
0.9461409903261673
-0.6062140217453613
26.0
