0.4374094474286454
0.9896067733914418
0.36899480441752486
0.4408924917614714
-0.4668880057261302
-0.6299248198432426
0.7684049607985572
-0.07565871353591214
-0.14115727056290284
0.29017094941065624
0.811533620942948
0.3526299274633399
0.9946805256596747
-0.9250861698168105
-0.6731636542394538
0.28441079470098884
-0.48710008025377616
-0.5484064255217675
-0.39777450209188303
0.20096703800289006
0.769522697445143
-0.10031358951879499
-0.4257605240454203
-0.9372568378043913
-0.3888110482188223
0.06664739571662137
0.6153670133800595
-0.846555547541175
0.3846728476533636
-0.8166483614923317
0.21642388328835072
-0.07228094256345718
-0.4579688639447035
0.529702941714213
-0.008412408401616722
-0.8620536216885178
0.1829503714884455
0.4632454974871134
-0.49707602483583035
0.9335853467166326
-0.37028459651776346
0.9379040168750248
0.8412637621902237
0.17832634645965284
0.453563635393055
0.36743024160638926
-0.13906742136099526
-0.4953122184614138
0.3892929048742455
-0.11326622275484055
-0.7274572847356653
0.9886489455186147
0.27031475202238453
-0.6787740931380006
-0.29102437239146306
-0.8319089304147071
-0.833595221299086
-0.06303801257227559
-0.42320149964175324
-0.07931823780904268
0.9145963141363667
0.7077030334802306
-0.07327731986755459
0.8652221972760035
0.795138814437566
-0.7103953262327602
0.9716230004581714
0.45192033075670435
0.4537395995235449
0.9844114633037522
0.8796907850650637
0.597555774351322
-0.8121238346783017
-0.17545282669170637
0.7980151147539429
-0.2693489008521741
0.5851030632713852
-0.5613998060972145
-0.27582207998914776
-0.7797343478423331
-0.21749224749474405
-0.43783108534070325
0.9969031288899721
-0.6934734393413795
-0.7220023976753636
-0.5479452749335678
0.8671739252182455
0.60296830317689
0.21004500922663283
-0.07665684338217349
0.7144651783866491
-0.8937152049013555
0.3796766394980644
0.00303108203681024
-0.12257614297905284
0.6163745305001018
-0.8602881353941194
-0.4175480459819736
-0.12815775768207827
-0.560836498106001
0.7711164910000143
-0.91385334771469
-0.18729151003366473
-0.07528431522887491
-0.21637139075129297
-0.25651293592670055
-0.5332915194329138
-0.7274405560651731
-0.7591623108454626
0.09776915748513582
-0.09058150630119699
0.3524120936324351
0.3954249919176107
0.3603282758297779
0.3165681576911561
0.21403855134861294
-0.9169224467436963
0.7954934842621644
-0.23122480256012712
-0.35883675059136944
-0.6256023887535029
0.3127908612963952
-0.5698360512887117
0.1761091264226462
0.3599346655964324
0.12641143427852408
-0.2905072713531589
0.12427625979362955
-0.9581116350883638
-0.20940988313595832
0.9611602213700077
0.049053986920349235
0.3830370005951935
0.5781222568383264
-0.672009321280941
-0.9951802559666258
-0.12238354064157453
-0.8025238467204132
-0.6169098556827408
-0.5482983805668527
-0.22704502679637772
-0.5033344423588584
-0.11457945492163502
-0.5618105672205567
0.1567071979416328
-0.0826787338292454
-0.7678024176733014
-0.6737435764604621
-0.6426545932661428
-0.19543242955380102
-0.25086659091590136
-0.48018271495263853
-0.3196404523692953
-0.7027857833206601
0.32525526700351604
0.06396904668594561
0.5493561057773142
0.6352564662688893
0.5067261673847341
0.33693261050745993
0.5762289789547852
-0.7055441511795093
-0.0787319747444073
-0.8468812479618713
-0.11578044197059478
0.5049558693691862
-0.7808171876955323
-0.11138703001691375
-0.8320116634824393
-0.08975607039608913
0.9380820569985471
0.1438798492393667
0.5223198885569657
0.5116225255432438
-0.8799205890273603
-0.37570829967939456
-0.4966891177576809
0.6144243270047332
-0.14152106715569657
-0.9491504110201023
0.5827951431036049
-0.7499069118279218
0.768019227123091
0.9854352113139878
-0.12083732607255582
0.14825541003348097
-0.3852241581258671
-0.32724235764117404
0.29438312908522546
0.5636293915272781
-0.8618934324863583
-0.4624195914217377
-0.7374075859816398
0.7768705148142836
-0.5265218707270012
-0.2029194034129631
0.7465326272799885
-0.530434667624047
-0.7456290765562352
0.28723335039588793
0.7021920270430084
0.06184951021607543
0.09265946465008468
-0.9662163547391707
-0.9713573187728497
0.9970755038745072
-0.8069503291790534
0.021620625393452775
-0.06735204128560657
0.20161446123769644
0.790924008241016
-0.9724607648021404
0.32957890823681346
-0.7732432789248349
0.2955322449650184
-0.32740665041616923
0.10336284663124107
0.2779519290335275
0.6631776229359454
0.17311207657140837
0.867702477694251
0.4124326976502688
-0.3495529222803979
-0.7133432676118079
0.9375222061346229
0.5635412738135905
-0.8743846856538948
0.2637427558272729
0.005620159159587024
0.5832543227992568
0.3487656664956986
0.33743029900513344
0.24360833183477015
0.23914023849740462
0.21142970709024178
0.5842828423965101
-0.9494236452207419
-0.6729477268983719
-0.6679076764560494
0.04691602728820188
0.6854760274570554
-0.7270587460916416
0.031689050775364436
-0.6466245095272014
0.7864738982717099
0.5093703675539973
-0.30641861721899977
0.004906095711159741
-0.8296921580128294
0.05757174010342858
-0.3035523338027588
0.7144276885075249
-0.39642576420446485
-0.12592562436784682
0.7751889988028837
-0.5426646538240044
0.941404707662677
-0.36727400316048375
-0.28941737343418716
-0.5385535320051589
-0.630469023063039
-0.05168406767657929
-0.9952255660684751
-0.6043519219078517
-0.09537906607882829
0.6085210786788284
-0.4520434009868355
0.7035898119945585
-0.1827464297050454
0.5308015685190655
-0.15135933078977337
0.021566621127130814
-0.2400257068193954
0.1919649514407673
-0.12395524568793626
-0.06491354293220897
-0.1417210692252957
0.006670349183297342
0.5960417932283897
0.2730205357855864
-0.33873422962177546
0.05683865352420159
0.24247900173198755
0.8016654649736081
0.5493063594716348
-0.4268781600081215
0.5048949015710664
0.7863625283457429
0.29320199344817666
-0.9864179454016009
-0.32420625662658376
-0.8736261868933002
-0.766765743913089
0.7388099240835074
-0.5357186524889166
0.8090423536177311
-0.12192190149288096
-0.7333881098766251
0.5301818187126577
0.6190110161220268
-0.24627931379631507
0.3071868647546938
-0.11124100099458234
0.5318605736832451
0.32231591610847454
0.6382887384996162
0.19750504330386853
0.29646297019630297
-0.08980972366343787
0.30507116515355737
-0.029903066086113927
0.18641609912452728
0.0711212767954339
0.9864491749897577
0.8053685370014356
0.10962807659236395
-0.31309818646804555
-0.05965287069639458
-0.4057345201880438
-0.23577101803495903
0.5905164629227801
-0.9705775618721029
0.6553248717404028
0.819056681101143
0.6026305364341553
-0.6005736691133341
-0.7501470206240228
-0.3194870023459362
0.7522574896318419
-0.44272143698685373
-0.8888600771037107
0.4681188121883695
0.697981618121875
-0.9745107718609556
-0.2893161167172493
0.34296793995609387
-0.0721765816210882
0.1994143314007225
-0.3069727405982168
0.7633425044617863
-0.9029693844969777
0.3570633007634132
0.4319968114294963
0.8100386928391297
0.4171769814956372
0.25464733646904447
-0.5564073941219752
-0.18665749499884887
0.8789644878307155
-0.05177046055520074
0.5947985082160394
0.7457109902300265
0.9817452360176571
0.3053239564082979
0.28762185884999714
-0.7617233673673847
0.6710604132658664
-0.9263949206631263
-0.15525500170453221
-0.48351056549474425
170.0
