-0.2216722886045559
0.8208284053943145
0.6882821347675814
-0.36387307797930335
-0.5770214523772459
0.6418894915415501
0.33118099941650936
-0.28491504748777663
0.021240621897851142
0.9899890669711859
-0.2757301079144441
0.03767618961141883
-0.9830071977256936
-0.5512307120733868
-0.8495342888361044
-0.6753446692344536
0.7139637135637644
0.22977860119503934
0.8279881460174503
0.29453438595643866
0.3023871276000829
-0.16800395361277554
0.23831265439773763
-0.08984804954656966
-0.6928649186417855
0.24804469810164664
0.3249758395054274
-0.195258575185147
0.5212245934899846
-0.44379675458542955
0.019916864462738326
0.35417203620890314
-0.1361636735360947
0.017361212775140578
-0.04171144477905786
0.09764886450852717
-0.29219576875732534
-0.7419121083811013
-0.8033781618501492
-0.2199224698328348
-0.18675680212875467
0.43480584844614745
-0.7221793921540736
0.8593671300712118
0.9777791285659125
0.6790672476926916
0.5982406035055492
-0.254345782085027
0.9114335631978496
0.7098179346093074
-0.3394089854383775
-0.6916769159400231
0.20254449491592497
-0.8376728867164251
0.2891434687191863
-0.10098910213715029
0.5131837158114894
0.6163151257545771
-0.7204760162582307
-0.27244777860507896
0.8652562177563454
-0.32016893314481654
-0.08323808724008375
0.4246755169643579
0.5737253120000849
-0.1380003739740412
-0.13680422223434952
-0.7661928253923023
-0.20998662065916873
0.780982255819838
0.29827774960812614
-0.52072973996415
0.5146652183386862
-0.7631674186656094
0.42965583469000146
0.46066889386564935
0.5613291820168047
0.0090760305663391
-0.26903534983599786
0.22783894824639428
0.8968419455067143
-0.35425889262382504
0.18427921772761557
0.8449532642919024
-0.6518961335307354
-0.7235897243304408
0.08263674713113356
-0.22151620337547095
0.539509840790948
0.9309795586734897
-0.2964519728982038
0.8879884168235812
0.5939853481098198
-0.4353203237951526
0.6477792431424096
0.5115432459593101
0.09458890617159987
-0.9557181630291707
-0.6891488109168658
0.4184071423139677
-0.4144928568844106
0.5304658443182086
0.9892358338316893
0.9157403420517847
-0.15710235434953668
0.7690476021988819
0.12363645084296437
-0.11752353494660572
0.6389140745199122
0.5017430896933675
0.7772221195033602
0.6989603853580091
-0.32846280509776316
0.07087427295438964
-0.17454596694971225
0.2525057492612597
0.6810985873123969
-0.9621690839216661
-0.10309282504398953
0.6148804687480878
-0.040537879490786244
0.046346202187454555
0.5615648480106823
-0.48493677226717247
0.6571681530412916
0.9030267014187581
-0.16454180025154952
0.6061808022926478
0.43482211535971405
0.5391114976170703
0.5926513519610077
-0.39856945466255134
-0.27938590416069475
0.6931996776846157
-0.17928664617961498
0.8813208258555152
-0.3488701539385899
0.2704664961705361
-0.07262996617543105
0.11203194461959542
0.45525995876179715
0.4000203913219862
0.16067127066497888
-0.682821914785702
-0.5836559859988799
-0.3451477461718395
0.05575353293030072
-0.65419360289709
-0.6747792495898111
-0.2937457758886832
-0.6765892018423905
-0.9663928125609522
0.5254005138105533
-0.6664501511258234
-0.8679051721139939
0.7169448609188653
0.48242553020126233
-0.5349700887336672
-0.5082641348813144
-0.1261498476124696
0.16218833239242092
0.8857616955419212
0.15165899554390427
0.8963814945109416
0.5506747755725454
-0.510303642740009
0.5820130809295823
0.9740154819679596
-0.38513438581300696
0.010175466885964601
-0.18387349245615603
0.714479591445718
0.5969190939977285
-0.10851417008177533
0.9579711066929213
0.4970296117485389
0.6675706531808685
-0.8420467274041303
-0.6638622622819319
0.1799746947783365
21.0
