0.028319317861107918
-0.8003372992896298
-0.3973440811958586
-0.11512052309177792
0.3260537254453814
0.4416546665695308
0.22617746444038375
-0.6191407744501387
-0.6034960459292779
-0.3086263031082458
0.3480350854152278
0.40652232965822765
0.09573046736630864
0.1547737852426988
0.7913374029428548
-0.45355419535078023
0.0599414498987087
-0.23296413375071864
-0.33020753455437446
-0.35488412500126737
-0.374274633998158
-0.3843950108505164
-0.26555093300708643
0.45787765486768667
0.18811771161177748
-0.7144847437510377
0.4852800171482007
0.3319788503994353
0.5590266026597681
0.31318539879352136
-0.7999732917601179
0.05453445635411905
0.8063083536407625
-0.0432317045255092
0.7913035281787801
0.8403818198014439
-0.6381893913845389
-0.6008138013525812
-0.205265204027982
0.6309408029013917
-0.0157761876526622
-0.43291016493331286
-0.3378582983601043
-0.6837856139216452
-0.3703776105149172
-0.11985120718763684
0.6046085847021251
0.024030059418911842
-0.10573981356105264
0.5219300361127186
-0.49901344857981944
-0.29593691322236537
0.5187560318977456
0.6562537546952212
0.46581930015133366
0.18164200823920218
-0.10022193993998069
0.8076828341156179
0.20124908151662188
0.5547351418761762
-0.24726816732317528
0.8957310808672603
-0.24987337732666443
-0.2708333438982343
-0.6853649274373133
-0.11887367154260228
-0.34660855748057007
0.32681968339771317
0.4111781146964159
0.06462947787580628
-0.27051974229819375
0.126925678121021
-0.4991271558529342
0.15756020732900883
-0.19303246107218058
0.7613000727967911
0.20204790757729232
0.8846497059382818
-0.09900737884813324
0.1763063148867778
0.7194709385752946
0.6914788044217858
-0.11779840700319186
0.20378563266869879
0.014380900734141278
-0.27243028180090345
0.07259423781859378
-0.31683384380791185
0.5161295682882419
0.2543333803318578
-0.5878606633517961
0.5963214861612517
-0.310520715715577
0.6987361146534428
0.6249373986935272
-0.27529242507212837
0.5639596570591416
0.5596335745475683
-0.4640961039141073
-0.4327376399819348
-0.1487538984960791
-0.849888497233086
0.5636989399389986
0.4186482354266075
-0.7714567514890607
-0.36551440671789354
-0.6168602431452924
0.473190305454664
0.040961275449996254
0.3539505787506103
-0.39466352523246384
0.267392760057133
-0.7368211946174592
-0.3160241331540772
-0.30766086808311316
-0.4079881131033815
0.1729523533842282
0.5611530186180174
-0.4280789470251505
0.536879983407248
0.4328915707339779
0.3173087151140952
0.49607690841421054
0.47885593428798523
0.9273770730175239
0.25490265285082825
0.05870153204185252
-0.11647826457774482
0.048824967359280685
0.3882744723168433
0.07055045793195747
-0.5991616150650582
-0.9003227547770845
0.8760180285090158
0.2451381997493212
-0.33485973913509276
0.34575864584957255
-0.24992769558710012
-0.5759421601052735
0.009843721748954704
0.08127382627876523
0.6071761029671965
0.05390256863699583
-0.3923114295557225
0.024784799762304494
-0.2987823188404369
-0.759687739428939
0.5103828154299882
0.21197615199068098
0.43461113226423165
-0.38674013836720006
0.36297703367072587
0.3758439480991449
-0.44331002462999697
0.16477261520691242
0.7384329617234993
-0.42052563633963586
0.07846981414511087
0.18253713452349588
0.3544328301647422
0.10583120475841926
-0.17325639129617204
-0.6920677419921821
-0.2512060871723589
0.45293588353385106
-0.37613220924929935
-0.23233802103323029
-0.3948653476233844
-0.6429946163745995
-0.16948218589610475
-0.2444207996499941
0.6568289673133676
-0.8779540055441741
0.5702710240676445
0.2553469761687708
-0.23992082710827073
-0.6283464536169312
0.3753189492012633
-0.8708903364939264
-0.3352566952770194
8.0
